<?xml version="1.0"?>
<opencv_storage>
<cascade>
  <stageType>BOOST</stageType>
  <featureType>HAAR</featureType>
  <height>20</height>
  <width>20</width>
  <stageParams>
    <boostType>GAB</boostType>
    <minHitRate>9.9500000476837158e-01</minHitRate>
    <maxFalseAlarm>5.0000000000000000e-01</maxFalseAlarm>
    <weightTrimRate>9.4999999999999996e-01</weightTrimRate>
    <maxDepth>1</maxDepth>
    <maxWeakCount>100</maxWeakCount></stageParams>
  <featureParams>
    <maxCatCount>0</maxCatCount>
    <featSize>1</featSize>
    <mode>BASIC</mode></featureParams>
  <stageNum>15</stageNum>
  <stages>
    <!-- stage 0 -->
    <_>
      <maxWeakCount>3</maxWeakCount>
      <stageThreshold>-1.1171567440032959e+00</stageThreshold>
      <weakClassifiers>
        <_>
          <internalNodes>
            0 -1 87 9.9423602223396301e-03</internalNodes>
          <leafValues>
            -8.3870965242385864e-01 7.7914112806320190e-01</leafValues></_>
        <_>
          <internalNodes>
            0 -1 12 6.1955582350492477e-03</internalNodes>
          <leafValues>
            -5.8912646770477295e-01 6.2391430139541626e-01</leafValues></_>
        <_>
          <internalNodes>
            0 -1 120 2.2225154680199921e-04</internalNodes>
          <leafValues>
            -9.1192680597305298e-01 3.1067940592765808e-01</leafValues></_></weakClassifiers></_>
    <!-- stage 1 -->
    <_>
      <maxWeakCount>7</maxWeakCount>
      <stageThreshold>-9.4213527441024780e-01</stageThreshold>
      <weakClassifiers>
        <_>
          <internalNodes>
            0 -1 8 3.9962511509656906e-02</internalNodes>
          <leafValues>
            -5.6501728296279907e-01 7.5969415903091431e-01</leafValues></_>
        <_>
          <internalNodes>
            0 -1 61 2.6252465322613716e-03</internalNodes>
          <leafValues>
            -4.7843354940414429e-01 6.0739266872406006e-01</leafValues></_>
        <_>
          <internalNodes>
            0 -1 46 -1.2224675156176090e-03</internalNodes>
          <leafValues>
            4.2759081721305847e-01 -5.4806709289550781e-01</leafValues></_>
        <_>
          <internalNodes>
            0 -1 66 4.3010346416849643e-05</internalNodes>
          <leafValues>
            -7.1041548252105713e-01 2.6835578680038452e-01</leafValues></_>
        <_>
          <internalNodes>
            0 -1 104 1.0582134127616882e-03</internalNodes>
          <leafValues>
            2.0103287696838379e-01 -8.7027549743652344e-01</leafValues></_>
        <_>
          <internalNodes>
            0 -1 2 -1.3821662869304419e-03</internalNodes>
          <leafValues>
            5.1492381095886230e-01 -3.7383055686950684e-01</leafValues></_>
        <_>
          <internalNodes>
            0 -1 1 -8.6593953892588615e-03</internalNodes>
          <leafValues>
            5.8122080564498901e-01 -3.3181646466255188e-01</leafValues></_></weakClassifiers></_>
    <!-- stage 2 -->
    <_>
      <maxWeakCount>8</maxWeakCount>
      <stageThreshold>-1.1643769741058350e+00</stageThreshold>
      <weakClassifiers>
        <_>
          <internalNodes>
            0 -1 153 -3.9109368808567524e-03</internalNodes>
          <leafValues>
            6.3492065668106079e-01 -5.5555558204650879e-01</leafValues></_>
        <_>
          <internalNodes>
            0 -1 84 9.1312662698328495e-04</internalNodes>
          <leafValues>
            -7.9553574323654175e-01 3.4671071171760559e-01</leafValues></_>
        <_>
          <internalNodes>
            0 -1 165 -2.6309168897569180e-03</internalNodes>
          <leafValues>
            5.4143720865249634e-01 -4.3857491016387939e-01</leafValues></_>
        <_>
          <internalNodes>
            0 -1 16 7.4374757241457701e-04</internalNodes>
          <leafValues>
            -5.5129122734069824e-01 3.4911096096038818e-01</leafValues></_>
        <_>
          <internalNodes>
            0 -1 98 2.4241660721600056e-03</internalNodes>
          <leafValues>
            2.0153898000717163e-01 -8.3504587411880493e-01</leafValues></_>
        <_>
          <internalNodes>
            0 -1 138 5.9821025934070349e-04</internalNodes>
          <leafValues>
            -4.6282786130905151e-01 3.8883903622627258e-01</leafValues></_>
        <_>
          <internalNodes>
            0 -1 92 -8.4505556151270866e-04</internalNodes>
          <leafValues>
            -9.0380370616912842e-01 1.8317672610282898e-01</leafValues></_>
        <_>
          <internalNodes>
            0 -1 94 -4.8891219194047153e-05</internalNodes>
          <leafValues>
            -9.2196267843246460e-01 1.1244618147611618e-01</leafValues></_></weakClassifiers></_>
    <!-- stage 3 -->
    <_>
      <maxWeakCount>9</maxWeakCount>
      <stageThreshold>-1.1827194690704346e+00</stageThreshold>
      <weakClassifiers>
        <_>
          <internalNodes>
            0 -1 130 -8.5772533202543855e-04</internalNodes>
          <leafValues>
            5.7271903753280640e-01 -7.5720167160034180e-01</leafValues></_>
        <_>
          <internalNodes>
            0 -1 141 -4.8819594085216522e-03</internalNodes>
          <leafValues>
            4.6391960978507996e-01 -4.8465505242347717e-01</leafValues></_>
        <_>
          <internalNodes>
            0 -1 42 8.0364814493805170e-05</internalNodes>
          <leafValues>
            -7.2717255353927612e-01 2.8124642372131348e-01</leafValues></_>
        <_>
          <internalNodes>
            0 -1 177 6.1058939900249243e-04</internalNodes>
          <leafValues>
            -4.5241880416870117e-01 3.7355265021324158e-01</leafValues></_>
        <_>
          <internalNodes>
            0 -1 113 -1.9110769499093294e-03</internalNodes>
          <leafValues>
            6.2187796831130981e-01 -2.4211335182189941e-01</leafValues></_>
        <_>
          <internalNodes>
            0 -1 136 -1.1182839516550303e-03</internalNodes>
          <leafValues>
            5.6416940689086914e-01 -3.4497061371803284e-01</leafValues></_>
        <_>
          <internalNodes>
            0 -1 128 5.3374092094600201e-03</internalNodes>
          <leafValues>
            2.3101313412189484e-01 -7.8854447603225708e-01</leafValues></_>
        <_>
          <internalNodes>
            0 -1 146 -5.7296063750982285e-03</internalNodes>
          <leafValues>
            -7.8229463100433350e-01 1.7271132767200470e-01</leafValues></_>
        <_>
          <internalNodes>
            0 -1 28 -3.4819487482309341e-03</internalNodes>
          <leafValues>
            5.5809676647186279e-01 -3.1380835175514221e-01</leafValues></_></weakClassifiers></_>
    <!-- stage 4 -->
    <_>
      <maxWeakCount>10</maxWeakCount>
      <stageThreshold>-1.0152982473373413e+00</stageThreshold>
      <weakClassifiers>
        <_>
          <internalNodes>
            0 -1 20 4.8356916522607207e-04</internalNodes>
          <leafValues>
            -4.8376068472862244e-01 5.5933803319931030e-01</leafValues></_>
        <_>
          <internalNodes>
            0 -1 124 -5.0969602307304740e-04</internalNodes>
          <leafValues>
            -7.2938251495361328e-01 2.6152878999710083e-01</leafValues></_>
        <_>
          <internalNodes>
            0 -1 114 -2.9667001217603683e-03</internalNodes>
          <leafValues>
            6.2630897760391235e-01 -2.9242926836013794e-01</leafValues></_>
        <_>
          <internalNodes>
            0 -1 33 1.3441724004223943e-03</internalNodes>
          <leafValues>
            -4.9813556671142578e-01 3.3298298716545105e-01</leafValues></_>
        <_>
          <internalNodes>
            0 -1 149 -1.0728408815339208e-03</internalNodes>
          <leafValues>
            1.8579518795013428e-01 -7.6236182451248169e-01</leafValues></_>
        <_>
          <internalNodes>
            0 -1 63 8.6736623197793961e-03</internalNodes>
          <leafValues>
            1.4362423121929169e-01 -8.0978161096572876e-01</leafValues></_>
        <_>
          <internalNodes>
            0 -1 174 2.4869954213500023e-03</internalNodes>
          <leafValues>
            -3.0736944079399109e-01 4.4624039530754089e-01</leafValues></_>
        <_>
          <internalNodes>
            0 -1 89 7.5083000410813838e-05</internalNodes>
          <leafValues>
            -8.3403813838958740e-01 1.7438359558582306e-01</leafValues></_>
        <_>
          <internalNodes>
            0 -1 108 2.0779017359018326e-03</internalNodes>
          <leafValues>
            -3.0117267370223999e-01 5.2427142858505249e-01</leafValues></_>
        <_>
          <internalNodes>
            0 -1 122 8.7299793958663940e-03</internalNodes>
          <leafValues>
            1.8459911644458771e-01 -7.4925571680068970e-01</leafValues></_></weakClassifiers></_>
    <!-- stage 5 -->
    <_>
      <maxWeakCount>10</maxWeakCount>
      <stageThreshold>-1.2170280218124390e+00</stageThreshold>
      <weakClassifiers>
        <_>
          <internalNodes>
            0 -1 52 1.6693141311407089e-02</internalNodes>
          <leafValues>
            -4.5070421695709229e-01 6.1306530237197876e-01</leafValues></_>
        <_>
          <internalNodes>
            0 -1 43 -1.9408532534725964e-04</internalNodes>
          <leafValues>
            -9.5055127143859863e-01 2.3666030168533325e-01</leafValues></_>
        <_>
          <internalNodes>
            0 -1 125 4.9427110934630036e-04</internalNodes>
          <leafValues>
            -8.4974163770675659e-01 1.7458449304103851e-01</leafValues></_>
        <_>
          <internalNodes>
            0 -1 0 1.5010625123977661e-01</internalNodes>
          <leafValues>
            -2.7517384290695190e-01 7.0564931631088257e-01</leafValues></_>
        <_>
          <internalNodes>
            0 -1 123 -3.4110865090042353e-04</internalNodes>
          <leafValues>
            -8.1581211090087891e-01 1.7382678389549255e-01</leafValues></_>
        <_>
          <internalNodes>
            0 -1 93 -2.9405546374619007e-03</internalNodes>
          <leafValues>
            -8.4816300868988037e-01 1.3805723190307617e-01</leafValues></_>
        <_>
          <internalNodes>
            0 -1 76 -2.5380827486515045e-02</internalNodes>
          <leafValues>
            4.8918306827545166e-01 -2.6131388545036316e-01</leafValues></_>
        <_>
          <internalNodes>
            0 -1 95 4.8796879127621651e-03</internalNodes>
          <leafValues>
            1.1213269829750061e-01 -8.5616159439086914e-01</leafValues></_>
        <_>
          <internalNodes>
            0 -1 94 4.9698894144967198e-05</internalNodes>
          <leafValues>
            -7.4059611558914185e-01 1.3154816627502441e-01</leafValues></_>
        <_>
          <internalNodes>
            0 -1 139 2.7699014754034579e-04</internalNodes>
          <leafValues>
            -3.2450151443481445e-01 3.2831168174743652e-01</leafValues></_></weakClassifiers></_>
    <!-- stage 6 -->
    <_>
      <maxWeakCount>13</maxWeakCount>
      <stageThreshold>-1.2977899312973022e+00</stageThreshold>
      <weakClassifiers>
        <_>
          <internalNodes>
            0 -1 129 2.5320410728454590e-02</internalNodes>
          <leafValues>
            -2.1513944864273071e-01 6.5801888704299927e-01</leafValues></_>
        <_>
          <internalNodes>
            0 -1 18 6.2624586280435324e-04</internalNodes>
          <leafValues>
            -5.1270616054534912e-01 3.3852604031562805e-01</leafValues></_>
        <_>
          <internalNodes>
            0 -1 118 1.2211161665618420e-03</internalNodes>
          <leafValues>
            -5.2992725372314453e-01 2.5551962852478027e-01</leafValues></_>
        <_>
          <internalNodes>
            0 -1 85 1.0370589792728424e-02</internalNodes>
          <leafValues>
            1.7864544689655304e-01 -7.2229611873626709e-01</leafValues></_>
        <_>
          <internalNodes>
            0 -1 122 6.4550701063126326e-04</internalNodes>
          <leafValues>
            -7.2476762533187866e-01 1.5353472530841827e-01</leafValues></_>
        <_>
          <internalNodes>
            0 -1 91 -9.9076493643224239e-04</internalNodes>
          <leafValues>
            -7.9482382535934448e-01 1.2421075254678726e-01</leafValues></_>
        <_>
          <internalNodes>
            0 -1 88 2.0906273857690394e-04</internalNodes>
          <leafValues>
            -8.3306300640106201e-01 1.2877307832241058e-01</leafValues></_>
        <_>
          <internalNodes>
            0 -1 131 -1.3713301159441471e-03</internalNodes>
          <leafValues>
            -7.6744902133941650e-01 1.0827609151601791e-01</leafValues></_>
        <_>
          <internalNodes>
            0 -1 9 1.4206569176167250e-03</internalNodes>
          <leafValues>
            -2.9121863842010498e-01 4.2380195856094360e-01</leafValues></_>
        <_>
          <internalNodes>
            0 -1 161 7.2201050352305174e-04</internalNodes>
          <leafValues>
            1.4722934365272522e-01 -7.3643118143081665e-01</leafValues></_>
        <_>
          <internalNodes>
            0 -1 178 -1.0180755052715540e-03</internalNodes>
          <leafValues>
            3.1326007843017578e-01 -3.2439276576042175e-01</leafValues></_>
        <_>
          <internalNodes>
            0 -1 35 1.4421205560211092e-04</internalNodes>
          <leafValues>
            -4.0493071079254150e-01 2.7403581142425537e-01</leafValues></_>
        <_>
          <internalNodes>
            0 -1 73 9.4873370835557580e-04</internalNodes>
          <leafValues>
            1.3985557854175568e-01 -6.1584687232971191e-01</leafValues></_></weakClassifiers></_>
    <!-- stage 7 -->
    <_>
      <maxWeakCount>13</maxWeakCount>
      <stageThreshold>-1.0349041223526001e+00</stageThreshold>
      <weakClassifiers>
        <_>
          <internalNodes>
            0 -1 41 2.0502456463873386e-03</internalNodes>
          <leafValues>
            -6.3020831346511841e-01 4.9309152364730835e-01</leafValues></_>
        <_>
          <internalNodes>
            0 -1 143 2.9182764701545238e-03</internalNodes>
          <leafValues>
            -3.5144102573394775e-01 4.4046869874000549e-01</leafValues></_>
        <_>
          <internalNodes>
            0 -1 2 -1.8151770345866680e-03</internalNodes>
          <leafValues>
            5.0877726078033447e-01 -2.2852832078933716e-01</leafValues></_>
        <_>
          <internalNodes>
            0 -1 148 -2.7902185684069991e-04</internalNodes>
          <leafValues>
            1.5894562005996704e-01 -6.7173576354980469e-01</leafValues></_>
        <_>
          <internalNodes>
            0 -1 151 -1.8844290170818567e-03</internalNodes>
          <leafValues>
            -7.0328855514526367e-01 1.5953095257282257e-01</leafValues></_>
        <_>
          <internalNodes>
            0 -1 134 2.6986156590282917e-03</internalNodes>
          <leafValues>
            -2.3956334590911865e-01 5.2753758430480957e-01</leafValues></_>
        <_>
          <internalNodes>
            0 -1 110 -2.6212176308035851e-03</internalNodes>
          <leafValues>
            5.2170258760452271e-01 -2.8972697257995605e-01</leafValues></_>
        <_>
          <internalNodes>
            0 -1 77 -5.2044885233044624e-03</internalNodes>
          <leafValues>
            5.9920299053192139e-01 -1.7728836834430695e-01</leafValues></_>
        <_>
          <internalNodes>
            0 -1 49 -1.0127519490197301e-03</internalNodes>
          <leafValues>
            4.7241386771202087e-01 -2.2762525081634521e-01</leafValues></_>
        <_>
          <internalNodes>
            0 -1 126 1.4671925455331802e-03</internalNodes>
          <leafValues>
            1.9203223288059235e-01 -7.6456004381179810e-01</leafValues></_>
        <_>
          <internalNodes>
            0 -1 26 -3.2923184335231781e-03</internalNodes>
          <leafValues>
            4.1955557465553284e-01 -2.8020831942558289e-01</leafValues></_>
        <_>
          <internalNodes>
            0 -1 120 3.1832931563258171e-04</internalNodes>
          <leafValues>
            -7.7083402872085571e-01 1.3738512992858887e-01</leafValues></_>
        <_>
          <internalNodes>
            0 -1 64 -4.7222911380231380e-03</internalNodes>
          <leafValues>
            -7.9431813955307007e-01 1.0560844093561172e-01</leafValues></_></weakClassifiers></_>
    <!-- stage 8 -->
    <_>
      <maxWeakCount>15</maxWeakCount>
      <stageThreshold>-1.0501548051834106e+00</stageThreshold>
      <weakClassifiers>
        <_>
          <internalNodes>
            0 -1 103 2.1183150820434093e-03</internalNodes>
          <leafValues>
            -5.7819902896881104e-01 5.0219488143920898e-01</leafValues></_>
        <_>
          <internalNodes>
            0 -1 173 -3.0879331752657890e-03</internalNodes>
          <leafValues>
            3.4833636879920959e-01 -4.4190770387649536e-01</leafValues></_>
        <_>
          <internalNodes>
            0 -1 141 -7.4589368887245655e-03</internalNodes>
          <leafValues>
            3.7597066164016724e-01 -3.2188200950622559e-01</leafValues></_>
        <_>
          <internalNodes>
            0 -1 74 -7.2406203253194690e-04</internalNodes>
          <leafValues>
            -7.7731394767761230e-01 1.4583738148212433e-01</leafValues></_>
        <_>
          <internalNodes>
            0 -1 45 -7.4095267336815596e-04</internalNodes>
          <leafValues>
            2.6307612657546997e-01 -3.8484925031661987e-01</leafValues></_>
        <_>
          <internalNodes>
            0 -1 32 -9.5801959105301648e-05</internalNodes>
          <leafValues>
            3.3270061016082764e-01 -3.1642800569534302e-01</leafValues></_>
        <_>
          <internalNodes>
            0 -1 183 -1.4295886503532529e-03</internalNodes>
          <leafValues>
            4.0052482485771179e-01 -2.5876149535179138e-01</leafValues></_>
        <_>
          <internalNodes>
            0 -1 90 -8.2720484351739287e-04</internalNodes>
          <leafValues>
            -9.3019241094589233e-01 1.2511418759822845e-01</leafValues></_>
        <_>
          <internalNodes>
            0 -1 83 2.3323979228734970e-02</internalNodes>
          <leafValues>
            7.5826115906238556e-02 -8.1341302394866943e-01</leafValues></_>
        <_>
          <internalNodes>
            0 -1 58 2.0292946137487888e-03</internalNodes>
          <leafValues>
            -5.5066186189651489e-01 1.6120064258575439e-01</leafValues></_>
        <_>
          <internalNodes>
            0 -1 145 1.3182176917325705e-04</internalNodes>
          <leafValues>
            -2.7616456151008606e-01 3.2672521471977234e-01</leafValues></_>
        <_>
          <internalNodes>
            0 -1 22 1.6929070698097348e-03</internalNodes>
          <leafValues>
            -2.3034416139125824e-01 4.0453448891639709e-01</leafValues></_>
        <_>
          <internalNodes>
            0 -1 57 1.1626549065113068e-02</internalNodes>
          <leafValues>
            1.1354555189609528e-01 -8.2588702440261841e-01</leafValues></_>
        <_>
          <internalNodes>
            0 -1 29 -3.0885746236890554e-03</internalNodes>
          <leafValues>
            4.5371192693710327e-01 -2.3579466342926025e-01</leafValues></_>
        <_>
          <internalNodes>
            0 -1 146 2.0003374665975571e-03</internalNodes>
          <leafValues>
            1.3469403982162476e-01 -7.9720085859298706e-01</leafValues></_></weakClassifiers></_>
    <!-- stage 9 -->
    <_>
      <maxWeakCount>17</maxWeakCount>
      <stageThreshold>-8.5551238059997559e-01</stageThreshold>
      <weakClassifiers>
        <_>
          <internalNodes>
            0 -1 62 4.4637621613219380e-04</internalNodes>
          <leafValues>
            -3.5097002983093262e-01 5.1523673534393311e-01</leafValues></_>
        <_>
          <internalNodes>
            0 -1 163 -2.5516506284475327e-03</internalNodes>
          <leafValues>
            2.3496466875076294e-01 -6.0530042648315430e-01</leafValues></_>
        <_>
          <internalNodes>
            0 -1 34 -3.7546674720942974e-03</internalNodes>
          <leafValues>
            -6.8166285753250122e-01 1.5391774475574493e-01</leafValues></_>
        <_>
          <internalNodes>
            0 -1 81 6.3447812572121620e-03</internalNodes>
          <leafValues>
            -2.1072857081890106e-01 6.0230022668838501e-01</leafValues></_>
        <_>
          <internalNodes>
            0 -1 53 6.1868755146861076e-03</internalNodes>
          <leafValues>
            -2.1288602054119110e-01 5.3361368179321289e-01</leafValues></_>
        <_>
          <internalNodes>
            0 -1 96 1.0681378189474344e-03</internalNodes>
          <leafValues>
            -7.5575971603393555e-01 1.3723762333393097e-01</leafValues></_>
        <_>
          <internalNodes>
            0 -1 150 7.9590012319386005e-04</internalNodes>
          <leafValues>
            9.4590023159980774e-02 -8.6703860759735107e-01</leafValues></_>
        <_>
          <internalNodes>
            0 -1 121 5.1756231114268303e-03</internalNodes>
          <leafValues>
            9.0257458388805389e-02 -8.4020817279815674e-01</leafValues></_>
        <_>
          <internalNodes>
            0 -1 175 -6.7557892762124538e-03</internalNodes>
          <leafValues>
            4.0052422881126404e-01 -2.2808864712715149e-01</leafValues></_>
        <_>
          <internalNodes>
            0 -1 19 1.1134978849440813e-03</internalNodes>
          <leafValues>
            -3.3396860957145691e-01 2.4696940183639526e-01</leafValues></_>
        <_>
          <internalNodes>
            0 -1 101 1.6891352424863726e-04</internalNodes>
          <leafValues>
            -3.3532443642616272e-01 3.2075586915016174e-01</leafValues></_>
        <_>
          <internalNodes>
            0 -1 136 -1.0454512666910887e-03</internalNodes>
          <leafValues>
            3.7964457273483276e-01 -2.3622865974903107e-01</leafValues></_>
        <_>
          <internalNodes>
            0 -1 50 2.2265961393713951e-02</internalNodes>
          <leafValues>
            1.1896702647209167e-01 -7.9629480838775635e-01</leafValues></_>
        <_>
          <internalNodes>
            0 -1 39 3.8389785913750529e-05</internalNodes>
          <leafValues>
            -6.2048524618148804e-01 1.1607979983091354e-01</leafValues></_>
        <_>
          <internalNodes>
            0 -1 142 7.7300094999372959e-03</internalNodes>
          <leafValues>
            1.0026779025793076e-01 -7.2216373682022095e-01</leafValues></_>
        <_>
          <internalNodes>
            0 -1 49 -2.1949461661279202e-03</internalNodes>
          <leafValues>
            4.7629067301750183e-01 -1.9313338398933411e-01</leafValues></_>
        <_>
          <internalNodes>
            0 -1 109 -2.3899874649941921e-03</internalNodes>
          <leafValues>
            4.7765016555786133e-01 -1.6541846096515656e-01</leafValues></_></weakClassifiers></_>
    <!-- stage 10 -->
    <_>
      <maxWeakCount>18</maxWeakCount>
      <stageThreshold>-9.2939305305480957e-01</stageThreshold>
      <weakClassifiers>
        <_>
          <internalNodes>
            0 -1 99 5.1616419106721878e-02</internalNodes>
          <leafValues>
            -3.1866464763879776e-02 6.8162083625793457e-01</leafValues></_>
        <_>
          <internalNodes>
            0 -1 138 2.0320147741585970e-03</internalNodes>
          <leafValues>
            -2.4170915782451630e-01 4.4039586186408997e-01</leafValues></_>
        <_>
          <internalNodes>
            0 -1 33 1.1413735337555408e-03</internalNodes>
          <leafValues>
            -5.1097762584686279e-01 2.1296583116054535e-01</leafValues></_>
        <_>
          <internalNodes>
            0 -1 42 1.4358590124174953e-04</internalNodes>
          <leafValues>
            -6.8142074346542358e-01 1.4207856357097626e-01</leafValues></_>
        <_>
          <internalNodes>
            0 -1 177 6.1381526757031679e-04</internalNodes>
          <leafValues>
            -3.8089668750762939e-01 2.6701107621192932e-01</leafValues></_>
        <_>
          <internalNodes>
            0 -1 77 -9.2205740511417389e-03</internalNodes>
          <leafValues>
            6.6322070360183716e-01 -1.3126963376998901e-01</leafValues></_>
        <_>
          <internalNodes>
            0 -1 53 -5.7076588273048401e-03</internalNodes>
          <leafValues>
            5.5740880966186523e-01 -1.6039879620075226e-01</leafValues></_>
        <_>
          <internalNodes>
            0 -1 65 -6.3604972092434764e-04</internalNodes>
          <leafValues>
            -6.5574306249618530e-01 1.2063132226467133e-01</leafValues></_>
        <_>
          <internalNodes>
            0 -1 14 -9.3865639064460993e-04</internalNodes>
          <leafValues>
            4.6465098857879639e-01 -1.8340419232845306e-01</leafValues></_>
        <_>
          <internalNodes>
            0 -1 100 -4.6081939944997430e-04</internalNodes>
          <leafValues>
            -9.2499095201492310e-01 9.9008426070213318e-02</leafValues></_>
        <_>
          <internalNodes>
            0 -1 85 1.0249749757349491e-02</internalNodes>
          <leafValues>
            8.8703453540802002e-02 -7.5453042984008789e-01</leafValues></_>
        <_>
          <internalNodes>
            0 -1 162 -1.1813354212790728e-03</internalNodes>
          <leafValues>
            3.6721479892730713e-01 -2.4449245631694794e-01</leafValues></_>
        <_>
          <internalNodes>
            0 -1 117 1.7797347391024232e-03</internalNodes>
          <leafValues>
            -6.3711303472518921e-01 1.4447519183158875e-01</leafValues></_>
        <_>
          <internalNodes>
            0 -1 27 -2.9348600655794144e-03</internalNodes>
          <leafValues>
            4.8579239845275879e-01 -1.7883902788162231e-01</leafValues></_>
        <_>
          <internalNodes>
            0 -1 171 -3.9963512681424618e-03</internalNodes>
          <leafValues>
            -6.6276180744171143e-01 1.3342216610908508e-01</leafValues></_>
        <_>
          <internalNodes>
            0 -1 67 4.1661495342850685e-03</internalNodes>
          <leafValues>
            1.0612950474023819e-01 -6.8384283781051636e-01</leafValues></_>
        <_>
          <internalNodes>
            0 -1 25 -1.5220853965729475e-03</internalNodes>
          <leafValues>
            3.2804709672927856e-01 -2.5718757510185242e-01</leafValues></_>
        <_>
          <internalNodes>
            0 -1 60 -5.4061152040958405e-03</internalNodes>
          <leafValues>
            -6.2045466899871826e-01 1.3160412013530731e-01</leafValues></_></weakClassifiers></_>
    <!-- stage 11 -->
    <_>
      <maxWeakCount>19</maxWeakCount>
      <stageThreshold>-8.5272789001464844e-01</stageThreshold>
      <weakClassifiers>
        <_>
          <internalNodes>
            0 -1 68 3.8354387506842613e-03</internalNodes>
          <leafValues>
            -4.7126436233520508e-01 4.8785871267318726e-01</leafValues></_>
        <_>
          <internalNodes>
            0 -1 75 6.3750911504030228e-03</internalNodes>
          <leafValues>
            -4.1288816928863525e-01 3.0408248305320740e-01</leafValues></_>
        <_>
          <internalNodes>
            0 -1 3 8.1863859668374062e-03</internalNodes>
          <leafValues>
            -1.4772319793701172e-01 6.4138054847717285e-01</leafValues></_>
        <_>
          <internalNodes>
            0 -1 61 2.0887674763798714e-03</internalNodes>
          <leafValues>
            -5.0084227323532104e-01 1.6074861586093903e-01</leafValues></_>
        <_>
          <internalNodes>
            0 -1 123 -2.5784154422581196e-04</internalNodes>
          <leafValues>
            -6.9414204359054565e-01 1.0692672431468964e-01</leafValues></_>
        <_>
          <internalNodes>
            0 -1 144 1.8471779185347259e-04</internalNodes>
          <leafValues>
            -2.5363606214523315e-01 3.0567827820777893e-01</leafValues></_>
        <_>
          <internalNodes>
            0 -1 23 -1.0106579866260290e-03</internalNodes>
          <leafValues>
            1.9343803822994232e-01 -4.0268251299858093e-01</leafValues></_>
        <_>
          <internalNodes>
            0 -1 71 -1.0676516685634851e-03</internalNodes>
          <leafValues>
            -8.1950855255126953e-01 9.5453411340713501e-02</leafValues></_>
        <_>
          <internalNodes>
            0 -1 24 -1.0541217401623726e-02</internalNodes>
          <leafValues>
            3.0879411101341248e-01 -2.7483540773391724e-01</leafValues></_>
        <_>
          <internalNodes>
            0 -1 154 1.2868671910837293e-03</internalNodes>
          <leafValues>
            1.4845295250415802e-01 -5.8296614885330200e-01</leafValues></_>
        <_>
          <internalNodes>
            0 -1 166 -1.6776137053966522e-03</internalNodes>
          <leafValues>
            3.6565673351287842e-01 -2.1063882112503052e-01</leafValues></_>
        <_>
          <internalNodes>
            0 -1 79 -2.7732311282306910e-03</internalNodes>
          <leafValues>
            3.7756109237670898e-01 -1.9834870100021362e-01</leafValues></_>
        <_>
          <internalNodes>
            0 -1 81 4.2575891129672527e-03</internalNodes>
          <leafValues>
            -1.5870191156864166e-01 4.9209594726562500e-01</leafValues></_>
        <_>
          <internalNodes>
            0 -1 154 -1.2308836448937654e-03</internalNodes>
          <leafValues>
            -7.4062883853912354e-01 9.4385668635368347e-02</leafValues></_>
        <_>
          <internalNodes>
            0 -1 164 -3.7475643330253661e-04</internalNodes>
          <leafValues>
            3.2760891318321228e-01 -2.1528665721416473e-01</leafValues></_>
        <_>
          <internalNodes>
            0 -1 91 -1.1639585718512535e-03</internalNodes>
          <leafValues>
            -7.9514789581298828e-01 8.8183768093585968e-02</leafValues></_>
        <_>
          <internalNodes>
            0 -1 180 1.5363313723355532e-03</internalNodes>
          <leafValues>
            -2.0677578449249268e-01 3.7756845355033875e-01</leafValues></_>
        <_>
          <internalNodes>
            0 -1 10 8.0416686832904816e-03</internalNodes>
          <leafValues>
            -1.5908588469028473e-01 4.7497063875198364e-01</leafValues></_>
        <_>
          <internalNodes>
            0 -1 54 2.7044877409934998e-02</internalNodes>
          <leafValues>
            1.2379769235849380e-01 -5.7295417785644531e-01</leafValues></_></weakClassifiers></_>
    <!-- stage 12 -->
    <_>
      <maxWeakCount>20</maxWeakCount>
      <stageThreshold>-8.8372188806533813e-01</stageThreshold>
      <weakClassifiers>
        <_>
          <internalNodes>
            0 -1 152 8.6325497250072658e-05</internalNodes>
          <leafValues>
            4.5078578591346741e-01 -6.7375886440277100e-01</leafValues></_>
        <_>
          <internalNodes>
            0 -1 102 2.6323960628360510e-04</internalNodes>
          <leafValues>
            -3.8101950287818909e-01 2.8714373707771301e-01</leafValues></_>
        <_>
          <internalNodes>
            0 -1 15 8.1940852105617523e-03</internalNodes>
          <leafValues>
            -4.7239080071449280e-01 2.4282668530941010e-01</leafValues></_>
        <_>
          <internalNodes>
            0 -1 69 9.6635420050006360e-05</internalNodes>
          <leafValues>
            -7.4313461780548096e-01 1.0277872532606125e-01</leafValues></_>
        <_>
          <internalNodes>
            0 -1 37 1.8600976909510791e-04</internalNodes>
          <leafValues>
            -6.2878865003585815e-01 1.3397638499736786e-01</leafValues></_>
        <_>
          <internalNodes>
            0 -1 167 -4.8509687185287476e-03</internalNodes>
          <leafValues>
            4.0437132120132446e-01 -2.3020753264427185e-01</leafValues></_>
        <_>
          <internalNodes>
            0 -1 116 5.6806108914315701e-03</internalNodes>
          <leafValues>
            1.7574810981750488e-01 -4.7843676805496216e-01</leafValues></_>
        <_>
          <internalNodes>
            0 -1 31 1.5051383525133133e-02</internalNodes>
          <leafValues>
            7.6047666370868683e-02 -7.2294175624847412e-01</leafValues></_>
        <_>
          <internalNodes>
            0 -1 159 2.8006327338516712e-03</internalNodes>
          <leafValues>
            -2.0202445983886719e-01 3.9280584454536438e-01</leafValues></_>
        <_>
          <internalNodes>
            0 -1 133 -1.5058839926496148e-03</internalNodes>
          <leafValues>
            4.1264849901199341e-01 -1.8451684713363647e-01</leafValues></_>
        <_>
          <internalNodes>
            0 -1 112 -6.2567247077822685e-03</internalNodes>
          <leafValues>
            4.3312397599220276e-01 -1.5649905800819397e-01</leafValues></_>
        <_>
          <internalNodes>
            0 -1 97 -6.7994119599461555e-03</internalNodes>
          <leafValues>
            -8.6325073242187500e-01 6.9655001163482666e-02</leafValues></_>
        <_>
          <internalNodes>
            0 -1 157 -1.4376286417245865e-03</internalNodes>
          <leafValues>
            3.5284125804901123e-01 -2.1850474178791046e-01</leafValues></_>
        <_>
          <internalNodes>
            0 -1 140 1.0628074232954532e-04</internalNodes>
          <leafValues>
            -5.3520232439041138e-01 1.6097570955753326e-01</leafValues></_>
        <_>
          <internalNodes>
            0 -1 72 6.8809455260634422e-03</internalNodes>
          <leafValues>
            -4.6864065527915955e-01 1.4060842990875244e-01</leafValues></_>
        <_>
          <internalNodes>
            0 -1 105 -7.3091103695333004e-04</internalNodes>
          <leafValues>
            -7.0946735143661499e-01 8.3572782576084137e-02</leafValues></_>
        <_>
          <internalNodes>
            0 -1 183 -1.8831803463399410e-03</internalNodes>
          <leafValues>
            4.1090252995491028e-01 -1.7969194054603577e-01</leafValues></_>
        <_>
          <internalNodes>
            0 -1 55 -9.2868292704224586e-03</internalNodes>
          <leafValues>
            -6.9701784849166870e-01 1.1494354158639908e-01</leafValues></_>
        <_>
          <internalNodes>
            0 -1 48 -2.0904090255498886e-02</internalNodes>
          <leafValues>
            -6.6633504629135132e-01 7.9443112015724182e-02</leafValues></_>
        <_>
          <internalNodes>
            0 -1 89 2.0882056560367346e-05</internalNodes>
          <leafValues>
            -7.7550321817398071e-01 7.4170932173728943e-02</leafValues></_></weakClassifiers></_>
    <!-- stage 13 -->
    <_>
      <maxWeakCount>23</maxWeakCount>
      <stageThreshold>-1.0309245586395264e+00</stageThreshold>
      <weakClassifiers>
        <_>
          <internalNodes>
            0 -1 17 4.2170165106654167e-03</internalNodes>
          <leafValues>
            -1.0256410390138626e-01 5.3637349605560303e-01</leafValues></_>
        <_>
          <internalNodes>
            0 -1 36 -4.8148387577384710e-05</internalNodes>
          <leafValues>
            3.3183071017265320e-01 -3.1129816174507141e-01</leafValues></_>
        <_>
          <internalNodes>
            0 -1 179 7.4683912098407745e-03</internalNodes>
          <leafValues>
            -2.0210275053977966e-01 4.2079830169677734e-01</leafValues></_>
        <_>
          <internalNodes>
            0 -1 119 1.6222118865698576e-03</internalNodes>
          <leafValues>
            -2.9351016879081726e-01 2.7643534541130066e-01</leafValues></_>
        <_>
          <internalNodes>
            0 -1 132 -4.2877995292656124e-04</internalNodes>
          <leafValues>
            9.3600764870643616e-02 -6.3479197025299072e-01</leafValues></_>
        <_>
          <internalNodes>
            0 -1 66 -2.0984687580494210e-05</internalNodes>
          <leafValues>
            -6.0625916719436646e-01 1.4575134217739105e-01</leafValues></_>
        <_>
          <internalNodes>
            0 -1 158 2.7761827223002911e-03</internalNodes>
          <leafValues>
            -1.8758843839168549e-01 4.2865210771560669e-01</leafValues></_>
        <_>
          <internalNodes>
            0 -1 6 -1.6816321294754744e-03</internalNodes>
          <leafValues>
            3.7000823020935059e-01 -1.9262979924678802e-01</leafValues></_>
        <_>
          <internalNodes>
            0 -1 155 3.9806589484214783e-03</internalNodes>
          <leafValues>
            9.0389311313629150e-02 -7.4313747882843018e-01</leafValues></_>
        <_>
          <internalNodes>
            0 -1 86 4.3663447722792625e-03</internalNodes>
          <leafValues>
            8.5857108235359192e-02 -6.6278862953186035e-01</leafValues></_>
        <_>
          <internalNodes>
            0 -1 51 1.8074747174978256e-02</internalNodes>
          <leafValues>
            1.0513768345117569e-01 -5.7593965530395508e-01</leafValues></_>
        <_>
          <internalNodes>
            0 -1 137 2.7052317745983601e-03</internalNodes>
          <leafValues>
            -1.6485582292079926e-01 4.3321740627288818e-01</leafValues></_>
        <_>
          <internalNodes>
            0 -1 78 -2.4179190397262573e-02</internalNodes>
          <leafValues>
            -7.4101710319519043e-01 1.1565801501274109e-01</leafValues></_>
        <_>
          <internalNodes>
            0 -1 107 8.7964180856943130e-03</internalNodes>
          <leafValues>
            -1.6575983166694641e-01 4.4148260354995728e-01</leafValues></_>
        <_>
          <internalNodes>
            0 -1 156 -9.6300261793658137e-04</internalNodes>
          <leafValues>
            -6.2036108970642090e-01 1.1286693811416626e-01</leafValues></_>
        <_>
          <internalNodes>
            0 -1 38 2.5234343484044075e-03</internalNodes>
          <leafValues>
            8.8512204587459564e-02 -6.0771375894546509e-01</leafValues></_>
        <_>
          <internalNodes>
            0 -1 2 -6.6893274197354913e-04</internalNodes>
          <leafValues>
            2.2128131985664368e-01 -2.8642079234123230e-01</leafValues></_>
        <_>
          <internalNodes>
            0 -1 176 1.8839298281818628e-03</internalNodes>
          <leafValues>
            -1.6998420655727386e-01 3.4124934673309326e-01</leafValues></_>
        <_>
          <internalNodes>
            0 -1 181 -1.3488316908478737e-03</internalNodes>
          <leafValues>
            3.6221602559089661e-01 -2.0432528853416443e-01</leafValues></_>
        <_>
          <internalNodes>
            0 -1 106 -4.9181318900082260e-05</internalNodes>
          <leafValues>
            1.3547620177268982e-01 -5.1794081926345825e-01</leafValues></_>
        <_>
          <internalNodes>
            0 -1 4 -3.5026071127504110e-03</internalNodes>
          <leafValues>
            6.0926508903503418e-01 -1.0935568809509277e-01</leafValues></_>
        <_>
          <internalNodes>
            0 -1 80 9.3124695122241974e-03</internalNodes>
          <leafValues>
            8.1067718565464020e-02 -9.2176061868667603e-01</leafValues></_>
        <_>
          <internalNodes>
            0 -1 56 2.8714502695947886e-03</internalNodes>
          <leafValues>
            -1.6460044682025909e-01 4.1005879640579224e-01</leafValues></_></weakClassifiers></_>
    <!-- stage 14 -->
    <_>
      <maxWeakCount>24</maxWeakCount>
      <stageThreshold>-8.1949818134307861e-01</stageThreshold>
      <weakClassifiers>
        <_>
          <internalNodes>
            0 -1 21 1.6681215493008494e-03</internalNodes>
          <leafValues>
            -2.7142858505249023e-01 4.9158877134323120e-01</leafValues></_>
        <_>
          <internalNodes>
            0 -1 115 -1.0314762592315674e-02</internalNodes>
          <leafValues>
            3.3934965729713440e-01 -2.9634222388267517e-01</leafValues></_>
        <_>
          <internalNodes>
            0 -1 147 1.2434784730430692e-04</internalNodes>
          <leafValues>
            -2.1801796555519104e-01 3.9357030391693115e-01</leafValues></_>
        <_>
          <internalNodes>
            0 -1 44 6.1469629872590303e-04</internalNodes>
          <leafValues>
            -2.1956640481948853e-01 4.0356490015983582e-01</leafValues></_>
        <_>
          <internalNodes>
            0 -1 30 3.4454595297574997e-03</internalNodes>
          <leafValues>
            -1.9876131415367126e-01 3.8149052858352661e-01</leafValues></_>
        <_>
          <internalNodes>
            0 -1 40 -1.5367134474217892e-03</internalNodes>
          <leafValues>
            -5.6963932514190674e-01 1.0987767577171326e-01</leafValues></_>
        <_>
          <internalNodes>
            0 -1 84 9.5692148897796869e-04</internalNodes>
          <leafValues>
            -6.2114763259887695e-01 1.0335974395275116e-01</leafValues></_>
        <_>
          <internalNodes>
            0 -1 172 -7.9690571874380112e-04</internalNodes>
          <leafValues>
            1.4338085055351257e-01 -4.4730976223945618e-01</leafValues></_>
        <_>
          <internalNodes>
            0 -1 127 3.1318082474172115e-03</internalNodes>
          <leafValues>
            9.1665677726268768e-02 -6.9227820634841919e-01</leafValues></_>
        <_>
          <internalNodes>
            0 -1 82 6.9819577038288116e-03</internalNodes>
          <leafValues>
            -1.4670707285404205e-01 4.7608155012130737e-01</leafValues></_>
        <_>
          <internalNodes>
            0 -1 135 3.0578516423702240e-02</internalNodes>
          <leafValues>
            7.8464195132255554e-02 -8.3379256725311279e-01</leafValues></_>
        <_>
          <internalNodes>
            0 -1 13 -3.7278095260262489e-03</internalNodes>
          <leafValues>
            2.9954782128334045e-01 -2.1786677837371826e-01</leafValues></_>
        <_>
          <internalNodes>
            0 -1 59 -6.1528366059064865e-03</internalNodes>
          <leafValues>
            -7.5088995695114136e-01 1.0833444446325302e-01</leafValues></_>
        <_>
          <internalNodes>
            0 -1 70 3.9347391575574875e-03</internalNodes>
          <leafValues>
            -6.0636574029922485e-01 9.1094367206096649e-02</leafValues></_>
        <_>
          <internalNodes>
            0 -1 11 -2.2533752489835024e-03</internalNodes>
          <leafValues>
            4.6273022890090942e-01 -1.5885493159294128e-01</leafValues></_>
        <_>
          <internalNodes>
            0 -1 170 -2.6412255829200149e-04</internalNodes>
          <leafValues>
            3.0835938453674316e-01 -2.1811103820800781e-01</leafValues></_>
        <_>
          <internalNodes>
            0 -1 111 5.0318622961640358e-03</internalNodes>
          <leafValues>
            -1.7201144993305206e-01 4.3506288528442383e-01</leafValues></_>
        <_>
          <internalNodes>
            0 -1 7 -6.5103662200272083e-04</internalNodes>
          <leafValues>
            3.8439142704010010e-01 -1.7546020448207855e-01</leafValues></_>
        <_>
          <internalNodes>
            0 -1 169 6.0867797583341599e-04</internalNodes>
          <leafValues>
            8.1217415630817413e-02 -7.4386024475097656e-01</leafValues></_>
        <_>
          <internalNodes>
            0 -1 160 3.8312394171953201e-03</internalNodes>
          <leafValues>
            -1.0972801595926285e-01 6.4894777536392212e-01</leafValues></_>
        <_>
          <internalNodes>
            0 -1 168 -2.4075262248516083e-02</internalNodes>
          <leafValues>
            6.3150781393051147e-01 -7.7293299138545990e-02</leafValues></_>
        <_>
          <internalNodes>
            0 -1 182 2.5111758150160313e-03</internalNodes>
          <leafValues>
            -1.4193029701709747e-01 4.2973423004150391e-01</leafValues></_>
        <_>
          <internalNodes>
            0 -1 47 -5.3834468126296997e-03</internalNodes>
          <leafValues>
            4.3593767285346985e-01 -1.2547574937343597e-01</leafValues></_>
        <_>
          <internalNodes>
            0 -1 5 -6.4918315038084984e-03</internalNodes>
          <leafValues>
            -5.1994872093200684e-01 1.3450339436531067e-01</leafValues></_></weakClassifiers></_></stages>
  <features>
    <_>
      <rects>
        <_>
          0 9 18 4 -1.</_>
        <_>
          6 9 6 4 3.</_></rects>
      <tilted>0</tilted></_>
    <_>
      <rects>
        <_>
          2 1 4 8 -1.</_>
        <_>
          2 1 2 4 2.</_>
        <_>
          4 5 2 4 2.</_></rects>
      <tilted>0</tilted></_>
    <_>
      <rects>
        <_>
          3 12 3 1 -1.</_>
        <_>
          4 12 1 1 3.</_></rects>
      <tilted>0</tilted></_>
    <_>
      <rects>
        <_>
          3 12 4 1 -1.</_>
        <_>
          5 12 2 1 2.</_></rects>
      <tilted>0</tilted></_>
    <_>
      <rects>
        <_>
          3 13 6 2 -1.</_>
        <_>
          6 13 3 2 2.</_></rects>
      <tilted>0</tilted></_>
    <_>
      <rects>
        <_>
          4 6 9 1 -1.</_>
        <_>
          7 6 3 1 3.</_></rects>
      <tilted>0</tilted></_>
    <_>
      <rects>
        <_>
          4 10 3 1 -1.</_>
        <_>
          5 10 1 1 3.</_></rects>
      <tilted>0</tilted></_>
    <_>
      <rects>
        <_>
          4 11 1 2 -1.</_>
        <_>
          4 12 1 1 2.</_></rects>
      <tilted>0</tilted></_>
    <_>
      <rects>
        <_>
          4 11 12 5 -1.</_>
        <_>
          8 11 4 5 3.</_></rects>
      <tilted>0</tilted></_>
    <_>
      <rects>
        <_>
          4 12 2 1 -1.</_>
        <_>
          5 12 1 1 2.</_></rects>
      <tilted>0</tilted></_>
    <_>
      <rects>
        <_>
          4 14 6 2 -1.</_>
        <_>
          6 14 2 2 3.</_></rects>
      <tilted>0</tilted></_>
    <_>
      <rects>
        <_>
          4 14 10 1 -1.</_>
        <_>
          9 14 5 1 2.</_></rects>
      <tilted>0</tilted></_>
    <_>
      <rects>
        <_>
          4 15 12 1 -1.</_>
        <_>
          8 15 4 1 3.</_></rects>
      <tilted>0</tilted></_>
    <_>
      <rects>
        <_>
          5 2 3 4 -1.</_>
        <_>
          5 4 3 2 2.</_></rects>
      <tilted>0</tilted></_>
    <_>
      <rects>
        <_>
          5 9 2 2 -1.</_>
        <_>
          5 9 1 1 2.</_>
        <_>
          6 10 1 1 2.</_></rects>
      <tilted>0</tilted></_>
    <_>
      <rects>
        <_>
          5 9 6 6 -1.</_>
        <_>
          5 11 6 2 3.</_></rects>
      <tilted>0</tilted></_>
    <_>
      <rects>
        <_>
          5 11 2 3 -1.</_>
        <_>
          6 11 1 3 2.</_></rects>
      <tilted>0</tilted></_>
    <_>
      <rects>
        <_>
          5 11 8 6 -1.</_>
        <_>
          5 11 4 3 2.</_>
        <_>
          9 14 4 3 2.</_></rects>
      <tilted>0</tilted></_>
    <_>
      <rects>
        <_>
          5 12 2 2 -1.</_>
        <_>
          6 12 1 2 2.</_></rects>
      <tilted>0</tilted></_>
    <_>
      <rects>
        <_>
          5 12 3 4 -1.</_>
        <_>
          6 12 1 4 3.</_></rects>
      <tilted>0</tilted></_>
    <_>
      <rects>
        <_>
          5 13 6 1 -1.</_>
        <_>
          7 13 2 1 3.</_></rects>
      <tilted>0</tilted></_>
    <_>
      <rects>
        <_>
          5 13 6 2 -1.</_>
        <_>
          7 13 2 2 3.</_></rects>
      <tilted>0</tilted></_>
    <_>
      <rects>
        <_>
          5 14 3 2 -1.</_>
        <_>
          6 14 1 2 3.</_></rects>
      <tilted>0</tilted></_>
    <_>
      <rects>
        <_>
          5 14 4 2 -1.</_>
        <_>
          5 15 4 1 2.</_></rects>
      <tilted>0</tilted></_>
    <_>
      <rects>
        <_>
          6 1 8 4 -1.</_>
        <_>
          6 3 8 2 2.</_></rects>
      <tilted>0</tilted></_>
    <_>
      <rects>
        <_>
          6 4 3 2 -1.</_>
        <_>
          7 4 1 2 3.</_></rects>
      <tilted>0</tilted></_>
    <_>
      <rects>
        <_>
          6 4 3 4 -1.</_>
        <_>
          7 4 1 4 3.</_></rects>
      <tilted>0</tilted></_>
    <_>
      <rects>
        <_>
          6 5 2 6 -1.</_>
        <_>
          6 5 1 3 2.</_>
        <_>
          7 8 1 3 2.</_></rects>
      <tilted>0</tilted></_>
    <_>
      <rects>
        <_>
          6 7 3 3 -1.</_>
        <_>
          7 7 1 3 3.</_></rects>
      <tilted>0</tilted></_>
    <_>
      <rects>
        <_>
          6 8 3 2 -1.</_>
        <_>
          7 8 1 2 3.</_></rects>
      <tilted>0</tilted></_>
    <_>
      <rects>
        <_>
          6 8 2 4 -1.</_>
        <_>
          6 8 1 2 2.</_>
        <_>
          7 10 1 2 2.</_></rects>
      <tilted>0</tilted></_>
    <_>
      <rects>
        <_>
          6 9 6 3 -1.</_>
        <_>
          8 9 2 3 3.</_></rects>
      <tilted>0</tilted></_>
    <_>
      <rects>
        <_>
          6 10 2 2 -1.</_>
        <_>
          6 10 1 1 2.</_>
        <_>
          7 11 1 1 2.</_></rects>
      <tilted>0</tilted></_>
    <_>
      <rects>
        <_>
          6 10 1 6 -1.</_>
        <_>
          6 12 1 2 3.</_></rects>
      <tilted>0</tilted></_>
    <_>
      <rects>
        <_>
          6 10 4 6 -1.</_>
        <_>
          6 10 2 3 2.</_>
        <_>
          8 13 2 3 2.</_></rects>
      <tilted>0</tilted></_>
    <_>
      <rects>
        <_>
          6 11 2 1 -1.</_>
        <_>
          7 11 1 1 2.</_></rects>
      <tilted>0</tilted></_>
    <_>
      <rects>
        <_>
          6 11 2 2 -1.</_>
        <_>
          6 11 1 1 2.</_>
        <_>
          7 12 1 1 2.</_></rects>
      <tilted>0</tilted></_>
    <_>
      <rects>
        <_>
          6 11 2 2 -1.</_>
        <_>
          7 11 1 2 2.</_></rects>
      <tilted>0</tilted></_>
    <_>
      <rects>
        <_>
          6 11 3 2 -1.</_>
        <_>
          7 11 1 2 3.</_></rects>
      <tilted>0</tilted></_>
    <_>
      <rects>
        <_>
          6 11 4 1 -1.</_>
        <_>
          8 11 2 1 2.</_></rects>
      <tilted>0</tilted></_>
    <_>
      <rects>
        <_>
          6 11 4 4 -1.</_>
        <_>
          6 11 2 2 2.</_>
        <_>
          8 13 2 2 2.</_></rects>
      <tilted>0</tilted></_>
    <_>
      <rects>
        <_>
          6 11 6 4 -1.</_>
        <_>
          8 11 2 4 3.</_></rects>
      <tilted>0</tilted></_>
    <_>
      <rects>
        <_>
          6 12 2 2 -1.</_>
        <_>
          7 12 1 2 2.</_></rects>
      <tilted>0</tilted></_>
    <_>
      <rects>
        <_>
          6 12 4 1 -1.</_>
        <_>
          8 12 2 1 2.</_></rects>
      <tilted>0</tilted></_>
    <_>
      <rects>
        <_>
          6 14 2 4 -1.</_>
        <_>
          6 14 1 2 2.</_>
        <_>
          7 16 1 2 2.</_></rects>
      <tilted>0</tilted></_>
    <_>
      <rects>
        <_>
          6 14 2 2 -1.</_>
        <_>
          6 15 2 1 2.</_></rects>
      <tilted>0</tilted></_>
    <_>
      <rects>
        <_>
          6 15 4 2 -1.</_>
        <_>
          6 16 4 1 2.</_></rects>
      <tilted>0</tilted></_>
    <_>
      <rects>
        <_>
          7 4 3 3 -1.</_>
        <_>
          8 4 1 3 3.</_></rects>
      <tilted>0</tilted></_>
    <_>
      <rects>
        <_>
          7 5 2 9 -1.</_>
        <_>
          7 8 2 3 3.</_></rects>
      <tilted>0</tilted></_>
    <_>
      <rects>
        <_>
          7 6 3 1 -1.</_>
        <_>
          8 6 1 1 3.</_></rects>
      <tilted>0</tilted></_>
    <_>
      <rects>
        <_>
          7 6 4 7 -1.</_>
        <_>
          9 6 2 7 2.</_></rects>
      <tilted>0</tilted></_>
    <_>
      <rects>
        <_>
          7 6 6 5 -1.</_>
        <_>
          10 6 3 5 2.</_></rects>
      <tilted>0</tilted></_>
    <_>
      <rects>
        <_>
          7 6 4 8 -1.</_>
        <_>
          7 10 4 4 2.</_></rects>
      <tilted>0</tilted></_>
    <_>
      <rects>
        <_>
          7 7 3 3 -1.</_>
        <_>
          8 7 1 3 3.</_></rects>
      <tilted>0</tilted></_>
    <_>
      <rects>
        <_>
          7 7 2 8 -1.</_>
        <_>
          7 11 2 4 2.</_></rects>
      <tilted>0</tilted></_>
    <_>
      <rects>
        <_>
          7 7 4 5 -1.</_>
        <_>
          9 7 2 5 2.</_></rects>
      <tilted>0</tilted></_>
    <_>
      <rects>
        <_>
          7 8 3 1 -1.</_>
        <_>
          8 8 1 1 3.</_></rects>
      <tilted>0</tilted></_>
    <_>
      <rects>
        <_>
          7 8 4 3 -1.</_>
        <_>
          9 8 2 3 2.</_></rects>
      <tilted>0</tilted></_>
    <_>
      <rects>
        <_>
          7 9 2 4 -1.</_>
        <_>
          7 11 2 2 2.</_></rects>
      <tilted>0</tilted></_>
    <_>
      <rects>
        <_>
          7 9 4 6 -1.</_>
        <_>
          7 9 2 3 2.</_>
        <_>
          9 12 2 3 2.</_></rects>
      <tilted>0</tilted></_>
    <_>
      <rects>
        <_>
          7 9 6 1 -1.</_>
        <_>
          10 9 3 1 2.</_></rects>
      <tilted>0</tilted></_>
    <_>
      <rects>
        <_>
          7 9 5 2 -1.</_>
        <_>
          7 10 5 1 2.</_></rects>
      <tilted>0</tilted></_>
    <_>
      <rects>
        <_>
          7 10 1 4 -1.</_>
        <_>
          7 12 1 2 2.</_></rects>
      <tilted>0</tilted></_>
    <_>
      <rects>
        <_>
          7 10 2 4 -1.</_>
        <_>
          7 12 2 2 2.</_></rects>
      <tilted>0</tilted></_>
    <_>
      <rects>
        <_>
          7 10 4 6 -1.</_>
        <_>
          7 10 2 3 2.</_>
        <_>
          9 13 2 3 2.</_></rects>
      <tilted>0</tilted></_>
    <_>
      <rects>
        <_>
          7 11 3 2 -1.</_>
        <_>
          8 11 1 2 3.</_></rects>
      <tilted>0</tilted></_>
    <_>
      <rects>
        <_>
          7 11 4 1 -1.</_>
        <_>
          9 11 2 1 2.</_></rects>
      <tilted>0</tilted></_>
    <_>
      <rects>
        <_>
          7 11 2 4 -1.</_>
        <_>
          7 13 2 2 2.</_></rects>
      <tilted>0</tilted></_>
    <_>
      <rects>
        <_>
          7 11 6 4 -1.</_>
        <_>
          9 11 2 4 3.</_></rects>
      <tilted>0</tilted></_>
    <_>
      <rects>
        <_>
          7 11 3 2 -1.</_>
        <_>
          7 12 3 1 2.</_></rects>
      <tilted>0</tilted></_>
    <_>
      <rects>
        <_>
          7 11 4 6 -1.</_>
        <_>
          7 13 4 2 3.</_></rects>
      <tilted>0</tilted></_>
    <_>
      <rects>
        <_>
          7 12 3 2 -1.</_>
        <_>
          8 12 1 2 3.</_></rects>
      <tilted>0</tilted></_>
    <_>
      <rects>
        <_>
          7 12 5 6 -1.</_>
        <_>
          7 14 5 2 3.</_></rects>
      <tilted>0</tilted></_>
    <_>
      <rects>
        <_>
          7 13 3 1 -1.</_>
        <_>
          8 13 1 1 3.</_></rects>
      <tilted>0</tilted></_>
    <_>
      <rects>
        <_>
          7 13 3 2 -1.</_>
        <_>
          8 13 1 2 3.</_></rects>
      <tilted>0</tilted></_>
    <_>
      <rects>
        <_>
          7 13 6 6 -1.</_>
        <_>
          7 15 6 2 3.</_></rects>
      <tilted>0</tilted></_>
    <_>
      <rects>
        <_>
          7 16 6 4 -1.</_>
        <_>
          7 18 6 2 2.</_></rects>
      <tilted>0</tilted></_>
    <_>
      <rects>
        <_>
          8 6 3 3 -1.</_>
        <_>
          9 6 1 3 3.</_></rects>
      <tilted>0</tilted></_>
    <_>
      <rects>
        <_>
          8 6 3 6 -1.</_>
        <_>
          8 8 3 2 3.</_></rects>
      <tilted>0</tilted></_>
    <_>
      <rects>
        <_>
          8 7 3 2 -1.</_>
        <_>
          9 7 1 2 3.</_></rects>
      <tilted>0</tilted></_>
    <_>
      <rects>
        <_>
          8 7 3 2 -1.</_>
        <_>
          8 8 3 1 2.</_></rects>
      <tilted>0</tilted></_>
    <_>
      <rects>
        <_>
          8 8 3 2 -1.</_>
        <_>
          9 8 1 2 3.</_></rects>
      <tilted>0</tilted></_>
    <_>
      <rects>
        <_>
          8 8 3 3 -1.</_>
        <_>
          9 8 1 3 3.</_></rects>
      <tilted>0</tilted></_>
    <_>
      <rects>
        <_>
          8 8 2 6 -1.</_>
        <_>
          8 11 2 3 2.</_></rects>
      <tilted>0</tilted></_>
    <_>
      <rects>
        <_>
          8 9 1 4 -1.</_>
        <_>
          8 11 1 2 2.</_></rects>
      <tilted>0</tilted></_>
    <_>
      <rects>
        <_>
          8 9 2 6 -1.</_>
        <_>
          8 11 2 2 3.</_></rects>
      <tilted>0</tilted></_>
    <_>
      <rects>
        <_>
          8 9 4 6 -1.</_>
        <_>
          8 9 2 3 2.</_>
        <_>
          10 12 2 3 2.</_></rects>
      <tilted>0</tilted></_>
    <_>
      <rects>
        <_>
          8 9 3 9 -1.</_>
        <_>
          8 12 3 3 3.</_></rects>
      <tilted>0</tilted></_>
    <_>
      <rects>
        <_>
          8 10 1 4 -1.</_>
        <_>
          8 12 1 2 2.</_></rects>
      <tilted>0</tilted></_>
    <_>
      <rects>
        <_>
          8 10 2 2 -1.</_>
        <_>
          8 11 2 1 2.</_></rects>
      <tilted>0</tilted></_>
    <_>
      <rects>
        <_>
          8 11 2 2 -1.</_>
        <_>
          9 11 1 2 2.</_></rects>
      <tilted>0</tilted></_>
    <_>
      <rects>
        <_>
          8 11 2 4 -1.</_>
        <_>
          8 11 1 2 2.</_>
        <_>
          9 13 1 2 2.</_></rects>
      <tilted>0</tilted></_>
    <_>
      <rects>
        <_>
          8 11 2 4 -1.</_>
        <_>
          9 11 1 4 2.</_></rects>
      <tilted>0</tilted></_>
    <_>
      <rects>
        <_>
          8 11 3 6 -1.</_>
        <_>
          9 11 1 6 3.</_></rects>
      <tilted>0</tilted></_>
    <_>
      <rects>
        <_>
          8 11 2 2 -1.</_>
        <_>
          8 12 2 1 2.</_></rects>
      <tilted>0</tilted></_>
    <_>
      <rects>
        <_>
          8 11 2 4 -1.</_>
        <_>
          8 13 2 2 2.</_></rects>
      <tilted>0</tilted></_>
    <_>
      <rects>
        <_>
          8 11 2 6 -1.</_>
        <_>
          8 13 2 2 3.</_></rects>
      <tilted>0</tilted></_>
    <_>
      <rects>
        <_>
          8 11 4 6 -1.</_>
        <_>
          8 11 2 3 2.</_>
        <_>
          10 14 2 3 2.</_></rects>
      <tilted>0</tilted></_>
    <_>
      <rects>
        <_>
          8 11 3 2 -1.</_>
        <_>
          8 12 3 1 2.</_></rects>
      <tilted>0</tilted></_>
    <_>
      <rects>
        <_>
          8 11 6 9 -1.</_>
        <_>
          8 14 6 3 3.</_></rects>
      <tilted>0</tilted></_>
    <_>
      <rects>
        <_>
          8 12 2 1 -1.</_>
        <_>
          9 12 1 1 2.</_></rects>
      <tilted>0</tilted></_>
    <_>
      <rects>
        <_>
          8 12 4 1 -1.</_>
        <_>
          10 12 2 1 2.</_></rects>
      <tilted>0</tilted></_>
    <_>
      <rects>
        <_>
          8 12 3 2 -1.</_>
        <_>
          8 13 3 1 2.</_></rects>
      <tilted>0</tilted></_>
    <_>
      <rects>
        <_>
          8 12 3 6 -1.</_>
        <_>
          8 14 3 2 3.</_></rects>
      <tilted>0</tilted></_>
    <_>
      <rects>
        <_>
          8 13 2 1 -1.</_>
        <_>
          9 13 1 1 2.</_></rects>
      <tilted>0</tilted></_>
    <_>
      <rects>
        <_>
          8 14 3 2 -1.</_>
        <_>
          9 14 1 2 3.</_></rects>
      <tilted>0</tilted></_>
    <_>
      <rects>
        <_>
          8 15 1 2 -1.</_>
        <_>
          8 16 1 1 2.</_></rects>
      <tilted>0</tilted></_>
    <_>
      <rects>
        <_>
          9 3 3 5 -1.</_>
        <_>
          10 3 1 5 3.</_></rects>
      <tilted>0</tilted></_>
    <_>
      <rects>
        <_>
          9 4 2 4 -1.</_>
        <_>
          9 4 1 2 2.</_>
        <_>
          10 6 1 2 2.</_></rects>
      <tilted>0</tilted></_>
    <_>
      <rects>
        <_>
          9 6 3 1 -1.</_>
        <_>
          10 6 1 1 3.</_></rects>
      <tilted>0</tilted></_>
    <_>
      <rects>
        <_>
          9 6 3 2 -1.</_>
        <_>
          10 6 1 2 3.</_></rects>
      <tilted>0</tilted></_>
    <_>
      <rects>
        <_>
          9 7 3 2 -1.</_>
        <_>
          10 7 1 2 3.</_></rects>
      <tilted>0</tilted></_>
    <_>
      <rects>
        <_>
          9 7 3 4 -1.</_>
        <_>
          10 7 1 4 3.</_></rects>
      <tilted>0</tilted></_>
    <_>
      <rects>
        <_>
          9 8 3 1 -1.</_>
        <_>
          10 8 1 1 3.</_></rects>
      <tilted>0</tilted></_>
    <_>
      <rects>
        <_>
          9 8 3 2 -1.</_>
        <_>
          10 8 1 2 3.</_></rects>
      <tilted>0</tilted></_>
    <_>
      <rects>
        <_>
          9 8 6 4 -1.</_>
        <_>
          9 8 3 2 2.</_>
        <_>
          12 10 3 2 2.</_></rects>
      <tilted>0</tilted></_>
    <_>
      <rects>
        <_>
          9 9 1 6 -1.</_>
        <_>
          9 12 1 3 2.</_></rects>
      <tilted>0</tilted></_>
    <_>
      <rects>
        <_>
          9 9 2 4 -1.</_>
        <_>
          9 11 2 2 2.</_></rects>
      <tilted>0</tilted></_>
    <_>
      <rects>
        <_>
          9 9 3 2 -1.</_>
        <_>
          9 10 3 1 2.</_></rects>
      <tilted>0</tilted></_>
    <_>
      <rects>
        <_>
          9 9 3 3 -1.</_>
        <_>
          9 10 3 1 3.</_></rects>
      <tilted>0</tilted></_>
    <_>
      <rects>
        <_>
          9 10 1 4 -1.</_>
        <_>
          9 12 1 2 2.</_></rects>
      <tilted>0</tilted></_>
    <_>
      <rects>
        <_>
          9 10 1 6 -1.</_>
        <_>
          9 13 1 3 2.</_></rects>
      <tilted>0</tilted></_>
    <_>
      <rects>
        <_>
          9 10 2 6 -1.</_>
        <_>
          9 12 2 2 3.</_></rects>
      <tilted>0</tilted></_>
    <_>
      <rects>
        <_>
          9 11 2 1 -1.</_>
        <_>
          10 11 1 1 2.</_></rects>
      <tilted>0</tilted></_>
    <_>
      <rects>
        <_>
          9 11 2 2 -1.</_>
        <_>
          10 11 1 2 2.</_></rects>
      <tilted>0</tilted></_>
    <_>
      <rects>
        <_>
          9 11 1 6 -1.</_>
        <_>
          9 13 1 2 3.</_></rects>
      <tilted>0</tilted></_>
    <_>
      <rects>
        <_>
          9 11 2 2 -1.</_>
        <_>
          9 12 2 1 2.</_></rects>
      <tilted>0</tilted></_>
    <_>
      <rects>
        <_>
          9 11 2 4 -1.</_>
        <_>
          9 13 2 2 2.</_></rects>
      <tilted>0</tilted></_>
    <_>
      <rects>
        <_>
          9 11 3 4 -1.</_>
        <_>
          9 13 3 2 2.</_></rects>
      <tilted>0</tilted></_>
    <_>
      <rects>
        <_>
          9 11 5 9 -1.</_>
        <_>
          9 14 5 3 3.</_></rects>
      <tilted>0</tilted></_>
    <_>
      <rects>
        <_>
          9 14 1 4 -1.</_>
        <_>
          9 16 1 2 2.</_></rects>
      <tilted>0</tilted></_>
    <_>
      <rects>
        <_>
          9 14 3 2 -1.</_>
        <_>
          10 14 1 2 3.</_></rects>
      <tilted>0</tilted></_>
    <_>
      <rects>
        <_>
          9 15 6 1 -1.</_>
        <_>
          12 15 3 1 2.</_></rects>
      <tilted>0</tilted></_>
    <_>
      <rects>
        <_>
          10 7 3 1 -1.</_>
        <_>
          11 7 1 1 3.</_></rects>
      <tilted>0</tilted></_>
    <_>
      <rects>
        <_>
          10 7 2 4 -1.</_>
        <_>
          10 7 1 2 2.</_>
        <_>
          11 9 1 2 2.</_></rects>
      <tilted>0</tilted></_>
    <_>
      <rects>
        <_>
          10 7 2 9 -1.</_>
        <_>
          10 10 2 3 3.</_></rects>
      <tilted>0</tilted></_>
    <_>
      <rects>
        <_>
          10 8 3 1 -1.</_>
        <_>
          11 8 1 1 3.</_></rects>
      <tilted>0</tilted></_>
    <_>
      <rects>
        <_>
          10 8 2 2 -1.</_>
        <_>
          11 8 1 2 2.</_></rects>
      <tilted>0</tilted></_>
    <_>
      <rects>
        <_>
          10 10 3 1 -1.</_>
        <_>
          11 10 1 1 3.</_></rects>
      <tilted>0</tilted></_>
    <_>
      <rects>
        <_>
          10 10 2 2 -1.</_>
        <_>
          11 10 1 2 2.</_></rects>
      <tilted>0</tilted></_>
    <_>
      <rects>
        <_>
          10 10 1 6 -1.</_>
        <_>
          10 12 1 2 3.</_></rects>
      <tilted>0</tilted></_>
    <_>
      <rects>
        <_>
          10 10 4 2 -1.</_>
        <_>
          12 10 2 2 2.</_></rects>
      <tilted>0</tilted></_>
    <_>
      <rects>
        <_>
          10 10 2 6 -1.</_>
        <_>
          10 12 2 2 3.</_></rects>
      <tilted>0</tilted></_>
    <_>
      <rects>
        <_>
          10 10 4 6 -1.</_>
        <_>
          10 10 2 3 2.</_>
        <_>
          12 13 2 3 2.</_></rects>
      <tilted>0</tilted></_>
    <_>
      <rects>
        <_>
          10 11 2 1 -1.</_>
        <_>
          11 11 1 1 2.</_></rects>
      <tilted>0</tilted></_>
    <_>
      <rects>
        <_>
          10 11 2 2 -1.</_>
        <_>
          11 11 1 2 2.</_></rects>
      <tilted>0</tilted></_>
    <_>
      <rects>
        <_>
          10 11 1 6 -1.</_>
        <_>
          10 14 1 3 2.</_></rects>
      <tilted>0</tilted></_>
    <_>
      <rects>
        <_>
          10 12 2 1 -1.</_>
        <_>
          11 12 1 1 2.</_></rects>
      <tilted>0</tilted></_>
    <_>
      <rects>
        <_>
          10 13 1 4 -1.</_>
        <_>
          10 15 1 2 2.</_></rects>
      <tilted>0</tilted></_>
    <_>
      <rects>
        <_>
          10 13 4 3 -1.</_>
        <_>
          12 13 2 3 2.</_></rects>
      <tilted>0</tilted></_>
    <_>
      <rects>
        <_>
          10 14 2 2 -1.</_>
        <_>
          11 14 1 2 2.</_></rects>
      <tilted>0</tilted></_>
    <_>
      <rects>
        <_>
          10 14 2 2 -1.</_>
        <_>
          10 15 2 1 2.</_></rects>
      <tilted>0</tilted></_>
    <_>
      <rects>
        <_>
          10 14 4 3 -1.</_>
        <_>
          12 14 2 3 2.</_></rects>
      <tilted>0</tilted></_>
    <_>
      <rects>
        <_>
          10 14 6 2 -1.</_>
        <_>
          13 14 3 2 2.</_></rects>
      <tilted>0</tilted></_>
    <_>
      <rects>
        <_>
          10 15 3 1 -1.</_>
        <_>
          11 15 1 1 3.</_></rects>
      <tilted>0</tilted></_>
    <_>
      <rects>
        <_>
          10 15 3 2 -1.</_>
        <_>
          11 15 1 2 3.</_></rects>
      <tilted>0</tilted></_>
    <_>
      <rects>
        <_>
          10 16 3 1 -1.</_>
        <_>
          11 16 1 1 3.</_></rects>
      <tilted>0</tilted></_>
    <_>
      <rects>
        <_>
          11 7 3 1 -1.</_>
        <_>
          12 7 1 1 3.</_></rects>
      <tilted>0</tilted></_>
    <_>
      <rects>
        <_>
          11 9 3 1 -1.</_>
        <_>
          12 9 1 1 3.</_></rects>
      <tilted>0</tilted></_>
    <_>
      <rects>
        <_>
          11 10 2 4 -1.</_>
        <_>
          11 10 1 2 2.</_>
        <_>
          12 12 1 2 2.</_></rects>
      <tilted>0</tilted></_>
    <_>
      <rects>
        <_>
          11 11 4 2 -1.</_>
        <_>
          13 11 2 2 2.</_></rects>
      <tilted>0</tilted></_>
    <_>
      <rects>
        <_>
          11 14 2 3 -1.</_>
        <_>
          12 14 1 3 2.</_></rects>
      <tilted>0</tilted></_>
    <_>
      <rects>
        <_>
          11 14 4 2 -1.</_>
        <_>
          11 14 2 1 2.</_>
        <_>
          13 15 2 1 2.</_></rects>
      <tilted>0</tilted></_>
    <_>
      <rects>
        <_>
          11 14 4 3 -1.</_>
        <_>
          13 14 2 3 2.</_></rects>
      <tilted>0</tilted></_>
    <_>
      <rects>
        <_>
          11 16 2 2 -1.</_>
        <_>
          11 16 1 1 2.</_>
        <_>
          12 17 1 1 2.</_></rects>
      <tilted>0</tilted></_>
    <_>
      <rects>
        <_>
          11 16 3 2 -1.</_>
        <_>
          11 17 3 1 2.</_></rects>
      <tilted>0</tilted></_>
    <_>
      <rects>
        <_>
          12 9 3 1 -1.</_>
        <_>
          13 9 1 1 3.</_></rects>
      <tilted>0</tilted></_>
    <_>
      <rects>
        <_>
          12 9 2 6 -1.</_>
        <_>
          12 11 2 2 3.</_></rects>
      <tilted>0</tilted></_>
    <_>
      <rects>
        <_>
          12 10 4 6 -1.</_>
        <_>
          12 12 4 2 3.</_></rects>
      <tilted>0</tilted></_>
    <_>
      <rects>
        <_>
          12 15 2 1 -1.</_>
        <_>
          13 15 1 1 2.</_></rects>
      <tilted>0</tilted></_>
    <_>
      <rects>
        <_>
          12 15 2 2 -1.</_>
        <_>
          12 15 1 1 2.</_>
        <_>
          13 16 1 1 2.</_></rects>
      <tilted>0</tilted></_>
    <_>
      <rects>
        <_>
          12 15 2 2 -1.</_>
        <_>
          13 15 1 2 2.</_></rects>
      <tilted>0</tilted></_>
    <_>
      <rects>
        <_>
          12 15 4 1 -1.</_>
        <_>
          14 15 2 1 2.</_></rects>
      <tilted>0</tilted></_>
    <_>
      <rects>
        <_>
          12 15 4 2 -1.</_>
        <_>
          14 15 2 2 2.</_></rects>
      <tilted>0</tilted></_>
    <_>
      <rects>
        <_>
          12 16 4 2 -1.</_>
        <_>
          12 16 2 1 2.</_>
        <_>
          14 17 2 1 2.</_></rects>
      <tilted>0</tilted></_>
    <_>
      <rects>
        <_>
          13 6 1 9 -1.</_>
        <_>
          13 9 1 3 3.</_></rects>
      <tilted>0</tilted></_>
    <_>
      <rects>
        <_>
          13 13 2 3 -1.</_>
        <_>
          13 14 2 1 3.</_></rects>
      <tilted>0</tilted></_>
    <_>
      <rects>
        <_>
          13 14 1 3 -1.</_>
        <_>
          13 15 1 1 3.</_></rects>
      <tilted>0</tilted></_>
    <_>
      <rects>
        <_>
          13 15 1 2 -1.</_>
        <_>
          13 16 1 1 2.</_></rects>
      <tilted>0</tilted></_>
    <_>
      <rects>
        <_>
          13 15 4 4 -1.</_>
        <_>
          13 15 2 2 2.</_>
        <_>
          15 17 2 2 2.</_></rects>
      <tilted>0</tilted></_>
    <_>
      <rects>
        <_>
          14 12 1 3 -1.</_>
        <_>
          14 13 1 1 3.</_></rects>
      <tilted>0</tilted></_>
    <_>
      <rects>
        <_>
          14 13 1 3 -1.</_>
        <_>
          14 14 1 1 3.</_></rects>
      <tilted>0</tilted></_>
    <_>
      <rects>
        <_>
          14 14 4 2 -1.</_>
        <_>
          14 14 2 1 2.</_>
        <_>
          16 15 2 1 2.</_></rects>
      <tilted>0</tilted></_>
    <_>
      <rects>
        <_>
          15 13 1 3 -1.</_>
        <_>
          15 14 1 1 3.</_></rects>
      <tilted>0</tilted></_></features></cascade>
</opencv_storage>
